{
  "defaults": {},
  "inputs": [
    {
      "name": "variable_0",
      "offset": 0,
      "scale": 1
    },
    {
      "name": "variable_1",
      "offset": 0,
      "scale": 1
    },
    {
      "name": "variable_2",
      "offset": 0,
      "scale": 1
    },
    {
      "name": "variable_3",
      "offset": 0,
      "scale": 1
    },
    {
      "name": "variable_4",
      "offset": 0,
      "scale": 1
    },
    {
      "name": "variable_5",
      "offset": 0,
      "scale": 1
    },
    {
      "name": "variable_6",
      "offset": 0,
      "scale": 1
    },
    {
      "name": "variable_7",
      "offset": 0,
      "scale": 1
    },
    {
      "name": "variable_8",
      "offset": 0,
      "scale": 1
    },
    {
      "name": "variable_9",
      "offset": 0,
      "scale": 1
    },
    {
      "name": "variable_10",
      "offset": 0,
      "scale": 1
    },
    {
      "name": "variable_11",
      "offset": 0,
      "scale": 1
    },
    {
      "name": "variable_12",
      "offset": 0,
      "scale": 1
    },
    {
      "name": "variable_13",
      "offset": 0,
      "scale": 1
    },
    {
      "name": "variable_14",
      "offset": 0,
      "scale": 1
    },
    {
      "name": "variable_15",
      "offset": 0,
      "scale": 1
    },
    {
      "name": "variable_16",
      "offset": 0,
      "scale": 1
    },
    {
      "name": "variable_17",
      "offset": 0,
      "scale": 1
    },
    {
      "name": "variable_18",
      "offset": 0,
      "scale": 1
    }
  ],
  "layers": [
    {
      "activation": "rectified",
      "architecture": "dense",
      "bias": [
        -0.011984148062765598,
        0.011995753273367882,
        -0.018008051440119743,
        0.017029648646712303,
        0.0360247977077961,
        0.1535063236951828,
        -0.02365988679230213,
        -0.014791863039135933,
        0.02720562368631363,
        0.014863183721899986,
        0.06818702071905136,
        -0.009039648808538914,
        -0.04004772752523422,
        -0.005726153496652842,
        -0.011559500358998775,
        0.0,
        0.007750032935291529,
        -0.13776898384094238,
        0.01144479215145111,
        -0.03554157540202141,
        0.0,
        0.021658463403582573,
        -0.014852000400424004,
        0.030269399285316467,
        0.03393452614545822,
        -0.032846514135599136,
        0.01440811064094305,
        -0.053017619997262955,
        -0.058696407824754715,
        0.044802214950323105,
        -0.03087720461189747,
        -0.029307086020708084,
        0.03462781012058258,
        -0.027332408353686333,
        0.08257711678743362,
        -0.03968680649995804,
        -0.009923789650201797,
        0.015139357186853886,
        0.03914593160152435,
        6.957328878343105e-05,
        -0.030633725225925446,
        -0.002295109909027815,
        0.032998017966747284,
        -0.00994271133095026,
        -0.05325745791196823,
        -0.006821459159255028,
        -0.001226751133799553,
        -0.0879959687590599,
        -0.006224502343684435,
        -0.016192154958844185,
        0.041754502803087234,
        0.0,
        0.08682963252067566,
        -0.03314211219549179,
        -0.04357913136482239,
        -0.007471017073839903,
        0.0,
        0.02792644128203392,
        -0.02360755391418934,
        -0.01606188714504242,
        0.06858037412166595,
        -0.0070404610596597195,
        0.01972968690097332,
        0.02008623071014881,
        0.0034396089613437653,
        -0.06193101406097412,
        0.08575063198804855,
        -0.04754906892776489,
        0.0,
        -0.04482922703027725,
        -0.001299190684221685,
        0.01534529309719801,
        0.05972600355744362,
        -0.01778663881123066,
        0.003120207227766514,
        -0.0670001357793808,
        0.0,
        0.005135569255799055,
        0.008266895078122616,
        0.006349953357130289,
        -0.011721224524080753,
        -0.012885089963674545,
        0.06713198125362396,
        0.0,
        0.034534286707639694,
        0.012309948913753033,
        0.0,
        0.047394707798957825,
        -0.04782940819859505,
        0.009295789524912834,
        0.04586877301335335,
        0.026380207389593124,
        -0.07882072776556015,
        -0.021693158894777298,
        0.09393114596605301,
        0.01627991534769535,
        -0.0015339923556894064,
        0.02481788769364357,
        0.0,
        -0.008963038213551044,
        -0.009760834276676178,
        -0.00917945709079504,
        -0.00692454818636179,
        0.036482278257608414,
        -0.011210213415324688,
        0.0877852663397789,
        -0.029586385935544968,
        -0.006200243718922138,
        -0.044578202068805695,
        0.0,
        -0.03714641556143761,
        0.041764821857213974,
        -0.02257300727069378,
        0.019481666386127472,
        -0.0026775372680276632,
        0.0069665987975895405,
        0.033625148236751556,
        0.0019932114519178867,
        -0.08749143779277802,
        -0.04382581636309624,
        0.06715472042560577,
        -0.03640075400471687,
        -0.029740268364548683,
        0.05705328658223152,
        -0.06375420093536377,
        -0.002270794939249754,
        -0.15990523993968964,
        -0.009662291966378689
      ],
      "weights": [
        -1.0383529663085938,
        0.03291952237486839,
        0.1977120041847229,
        0.04515553265810013,
        0.40232881903648376,
        0.21833465993404388,
        -0.28786107897758484,
        -0.30809611082077026,
        0.5007982850074768,
        0.1999884396791458,
        -0.19653458893299103,
        0.14929118752479553,
        0.7647659182548523,
        -0.11884695291519165,
        -0.5408161878585815,
        0.11655782908201218,
        0.08922906219959259,
        0.14425550401210785,
        -0.5377875566482544,
        -0.06133183464407921,
        -0.2358337640762329,
        -0.38173726201057434,
        0.24484051764011383,
        0.005163602996617556,
        -0.1593361496925354,
        -0.42980852723121643,
        0.06792903691530228,
        0.23672102391719818,
        -0.41739460825920105,
        -0.15591047704219818,
        -0.18039008975028992,
        -0.06830235570669174,
        -0.3160657584667206,
        0.3127012848854065,
        -0.4632611572742462,
        -0.15945063531398773,
        0.4082978069782257,
        0.318957656621933,
        0.8735747933387756,
        0.43755805492401123,
        -0.2130124866962433,
        -0.2901892364025116,
        -0.1931612342596054,
        0.6604563593864441,
        -0.21163013577461243,
        -0.11192920804023743,
        0.30512240529060364,
        -0.6800603270530701,
        0.39086201786994934,
        -0.10729964077472687,
        -0.22998793423175812,
        0.516910970211029,
        0.09417170286178589,
        -0.30516138672828674,
        -0.06120049208402634,
        0.5664318799972534,
        -0.2146746665239334,
        -0.4841722846031189,
        0.004054592456668615,
        0.19725005328655243,
        0.4048226773738861,
        0.6737632751464844,
        0.10499465465545654,
        1.108739972114563,
        -0.25989288091659546,
        -0.07567352056503296,
        0.06067643687129021,
        -0.3899635970592499,
        0.5694490671157837,
        0.7317354083061218,
        0.5925455093383789,
        -0.11941254884004593,
        0.15145771205425262,
        -0.2068611979484558,
        0.16960100829601288,
        -0.6635915040969849,
        -0.6758797764778137,
        0.7474141120910645,
        -0.4932674765586853,
        -0.2749486565589905,
        -0.07646223902702332,
        -0.02539350651204586,
        0.7182074785232544,
        0.0021630271803587675,
        0.03529997915029526,
        0.6194063425064087,
        0.25534340739250183,
        -0.18643923103809357,
        0.31705442070961,
        -0.04756012186408043,
        0.06343723088502884,
        -0.5085819363594055,
        0.2554125487804413,
        0.18910491466522217,
        -0.44999077916145325,
        -0.08968473225831985,
        -0.15396708250045776,
        -0.4689534604549408,
        0.006383547093719244,
        0.43614986538887024,
        0.43878671526908875,
        0.22215507924556732,
        -0.14075884222984314,
        0.1757541000843048,
        -0.3063184916973114,
        -0.09683333337306976,
        0.5161424875259399,
        0.10332994163036346,
        -0.7964626550674438,
        0.1306971162557602,
        -0.056391146034002304,
        -0.641983151435852,
        -0.1640886515378952,
        -0.19563107192516327,
        -0.8845393061637878,
        -0.11359868198633194,
        0.3635609745979309,
        -0.27176594734191895,
        0.18231813609600067,
        0.16911928355693817,
        0.47485172748565674,
        0.4976169168949127,
        -0.3346630334854126,
        0.40647247433662415,
        0.5324285626411438,
        -0.33603712916374207,
        -0.024102097377181053,
        -0.5935783982276917,
        0.6652673482894897,
        -0.5441319942474365,
        0.026668254286050797,
        -0.024015014991164207,
        -0.5345817804336548,
        0.30644163489341736,
        -0.5373157262802124,
        -0.7868553400039673,
        -0.07289436459541321,
        0.41149839758872986,
        -0.6950379014015198,
        -0.7983986139297485,
        -0.22580185532569885,
        0.3315894901752472,
        -0.09044723212718964,
        -0.16414125263690948,
        -0.07977823168039322,
        -0.13636286556720734,
        -0.058543965220451355,
        -0.3908855617046356,
        0.3491853177547455,
        0.3842296600341797,
        -0.1251291185617447,
        0.3587769865989685,
        0.44647255539894104,
        -0.6704674363136292,
        0.16811853647232056,
        -0.1025664359331131,
        0.5747454166412354,
        -1.0193761587142944,
        -0.44443297386169434,
        0.19395500421524048,
        0.05084003880620003,
        0.26537442207336426,
        -0.5059707164764404,
        -0.7720249891281128,
        -0.17876607179641724,
        -0.02157682180404663,
        -0.31584033370018005,
        -0.09087492525577545,
        -0.1687951534986496,
        0.016803719103336334,
        0.17912423610687256,
        0.6084041595458984,
        0.09010428935289383,
        0.37787744402885437,
        -0.25867295265197754,
        -0.05379046872258186,
        -0.0065234508365392685,
        -0.47504520416259766,
        0.46243512630462646,
        0.09671638906002045,
        -0.11241500079631805,
        -0.5401852130889893,
        -0.32715076208114624,
        -1.052783727645874,
        -0.5569041967391968,
        -0.3027527332305908,
        -0.33464792370796204,
        0.358451783657074,
        -0.39354050159454346,
        -0.5696181058883667,
        0.0969899520277977,
        -0.9520106315612793,
        -0.5398104190826416,
        0.35218003392219543,
        0.21993109583854675,
        -0.3487384021282196,
        -0.03556394949555397,
        -0.5935590267181396,
        0.28568461537361145,
        -0.2762790024280548,
        0.26570937037467957,
        -0.23800607025623322,
        0.5681841373443604,
        -0.24473734200000763,
        0.04450284689664841,
        0.042741626501083374,
        -0.3455885946750641,
        0.02632964216172695,
        0.1979895681142807,
        0.04119831323623657,
        0.07716526091098785,
        0.21627336740493774,
        -0.41325119137763977,
        -0.2464122474193573,
        -0.4576314687728882,
        -0.04197973385453224,
        -0.18941158056259155,
        0.11934570968151093,
        0.11453588306903839,
        -0.07718546688556671,
        -0.12563541531562805,
        -0.14144577085971832,
        -0.15087924897670746,
        -0.02312648668885231,
        -0.6066242456436157,
        -0.07111053913831711,
        -0.49845418334007263,
        0.5443769097328186,
        0.4260750412940979,
        -0.3148333430290222,
        -0.4279100000858307,
        -0.46642786264419556,
        -0.06566258519887924,
        -1.2726719379425049,
        0.16623809933662415,
        0.46033015847206116,
        -0.186446875333786,
        -0.07130555808544159,
        0.308749258518219,
        0.47636598348617554,
        0.2625613212585449,
        -0.1485775113105774,
        0.3934159278869629,
        0.2599059045314789,
        0.17844580113887787,
        0.03670196607708931,
        0.462103009223938,
        -0.016659848392009735,
        -0.0827731043100357,
        -0.16307476162910461,
        -0.09444902092218399,
        0.054449256509542465,
        -0.33065205812454224,
        -0.46081826090812683,
        -0.07297172397375107,
        0.13412527740001678,
        -0.36947116255760193,
        -0.07622962445020676,
        -0.3097965121269226,
        -0.11797148734331131,
        0.5587822198867798,
        -0.09492509812116623,
        -0.6083982586860657,
        0.2776968479156494,
        -0.13781116902828217,
        0.021556127816438675,
        0.4147925078868866,
        0.42708155512809753,
        0.15997318923473358,
        -0.15889546275138855,
        0.2424883097410202,
        0.48266705870628357,
        0.15033987164497375,
        -0.008961683139204979,
        -0.3946608901023865,
        0.44401437044143677,
        -0.14910413324832916,
        -0.13985402882099152,
        0.4655701816082001,
        0.26383909583091736,
        -0.015409312210977077,
        0.15433593094348907,
        -0.07437074929475784,
        0.2557843327522278,
        0.8067335486412048,
        0.251619815826416,
        -0.174805149435997,
        0.3450568914413452,
        -0.15348348021507263,
        0.0864945650100708,
        -0.06369473785161972,
        -0.6476534605026245,
        -0.2088964879512787,
        -0.3429206311702728,
        -0.08457089960575104,
        0.05910029634833336,
        -0.4617006778717041,
        0.24466127157211304,
        -0.2677055895328522,
        0.1465217024087906,
        -0.476781964302063,
        -0.3346431851387024,
        0.3080332577228546,
        -0.327949196100235,
        0.2978554368019104,
        0.32620686292648315,
        0.22384461760520935,
        -0.27615490555763245,
        0.24694187939167023,
        0.9079065918922424,
        0.0027067195624113083,
        0.29475489258766174,
        -0.13302607834339142,
        -0.16208527982234955,
        -0.4809516668319702,
        0.0951434075832367,
        -0.09722160547971725,
        0.6449148058891296,
        0.15039895474910736,
        0.058591604232788086,
        -0.5790701508522034,
        0.1619037687778473,
        0.550879955291748,
        -0.23741842806339264,
        -0.3471778929233551,
        0.6494981646537781,
        0.8240638375282288,
        0.11480569839477539,
        0.4342816472053528,
        -0.21241849660873413,
        0.3403233289718628,
        0.1772671490907669,
        0.20512954890727997,
        0.1877499520778656,
        0.3306858539581299,
        -0.25885242223739624,
        -0.23244608938694,
        -0.03335151821374893,
        0.1826643943786621,
        -0.05628380551934242,
        -0.4726758599281311,
        0.5903130173683167,
        0.6540169715881348,
        0.33716925978660583,
        0.17524251341819763,
        -0.3635355532169342,
        0.15238964557647705,
        0.25102704763412476,
        0.09332417696714401,
        0.43418049812316895,
        -0.28907033801078796,
        0.19742974638938904,
        -0.3688333332538605,
        -0.2108726054430008,
        -0.5301733016967773,
        -0.11112050712108612,
        0.6358084082603455,
        0.021942660212516785,
        -0.11936300247907639,
        0.023845646530389786,
        0.4824175536632538,
        -0.3878251910209656,
        0.05368456616997719,
        0.28045257925987244,
        -0.03723853453993797,
        0.25576063990592957,
        -0.3710288405418396,
        0.42714723944664,
        0.07162049412727356,
        -0.038495466113090515,
        -0.3221709728240967,
        0.3530617654323578,
        -0.40682268142700195,
        0.16712474822998047,
        -0.2606293857097626,
        0.3319302797317505,
        -0.02916799858212471,
        0.33793818950653076,
        0.15977175533771515,
        -0.952063798904419,
        0.23978333175182343,
        -0.39057156443595886,
        0.2457619458436966,
        0.1665378361940384,
        -0.10808835178613663,
        0.4572952389717102,
        -0.09347415715456009,
        0.15108631551265717,
        -0.32003432512283325,
        -0.15448403358459473,
        0.01339124608784914,
        0.31116223335266113,
        -0.12490497529506683,
        -0.3346353769302368,
        -0.6171636581420898,
        -0.4391637146472931,
        0.2499677836894989,
        0.09295780211687088,
        -0.2761155664920807,
        0.556269645690918,
        -0.621192991733551,
        -0.17173616588115692,
        0.25016623735427856,
        0.049720387905836105,
        -0.37035664916038513,
        -0.5925272703170776,
        0.062075428664684296,
        0.006909211631864309,
        -0.6017475128173828,
        0.6754998564720154,
        0.14653010666370392,
        -0.36721086502075195,
        -0.33125051856040955,
        0.5746127367019653,
        0.303394615650177,
        -0.14909981191158295,
        -0.08259101212024689,
        0.44743436574935913,
        -1.006028175354004,
        -0.09232333302497864,
        0.08118237555027008,
        0.2365359663963318,
        0.22896087169647217,
        0.7124632596969604,
        -0.24109230935573578,
        0.40903064608573914,
        -0.09007763862609863,
        -0.3199850916862488,
        -0.24688783288002014,
        -0.2310633361339569,
        -0.31978461146354675,
        0.3688771426677704,
        0.4354376196861267,
        0.033231232315301895,
        0.06669747084379196,
        0.07605170458555222,
        -0.9309600591659546,
        0.34541505575180054,
        0.18013443052768707,
        -0.4416768550872803,
        -0.1988775134086609,
        -0.11442361772060394,
        -0.7203635573387146,
        -0.4684953987598419,
        0.00987023115158081,
        -0.00956877414137125,
        -0.22669005393981934,
        0.0029375709127634764,
        0.7221517562866211,
        0.650590717792511,
        0.08294163644313812,
        -0.0192287378013134,
        0.04064658656716347,
        0.09540396928787231,
        0.3936314284801483,
        1.0465861558914185,
        -0.2507314085960388,
        0.10294026881456375,
        -0.19891712069511414,
        -0.08524790406227112,
        -0.24978438019752502,
        -0.0771791934967041,
        0.23580683767795563,
        0.1417737454175949,
        -0.17067933082580566,
        -0.20537158846855164,
        0.3533724546432495,
        0.44205451011657715,
        -0.19637496769428253,
        -0.26706036925315857,
        0.25716593861579895,
        -0.45230767130851746,
        -0.3419730067253113,
        0.36674484610557556,
        -0.7710676789283752,
        0.13318409025669098,
        0.35066425800323486,
        0.39179831743240356,
        0.32811295986175537,
        0.35761746764183044,
        -0.010457532480359077,
        0.4395067095756531,
        -0.039675891399383545,
        -0.5954013466835022,
        -0.005609096493571997,
        0.1181361973285675,
        -0.08737882226705551,
        0.923714280128479,
        0.3156518042087555,
        -0.0002095602685585618,
        -0.5702657699584961,
        -0.15019404888153076,
        0.1647016853094101,
        0.4071967303752899,
        -1.0518584251403809,
        0.10073083639144897,
        0.006696763914078474,
        -0.15644915401935577,
        -0.4428885281085968,
        -0.008959957398474216,
        0.6724876165390015,
        -0.09618872404098511,
        0.6145678758621216,
        0.36333951354026794,
        0.08182579278945923,
        -0.5539984703063965,
        0.11948297917842865,
        -0.2374657839536667,
        0.13537992537021637,
        0.02995041199028492,
        -0.27420300245285034,
        0.24859526753425598,
        -0.4226551949977875,
        0.4315311014652252,
        0.20003889501094818,
        0.8578835725784302,
        0.25317347049713135,
        0.21129639446735382,
        0.6803467273712158,
        0.04517620429396629,
        -0.34504565596580505,
        0.33159518241882324,
        -0.0859074667096138,
        -0.4452354907989502,
        0.24609339237213135,
        -0.05788443610072136,
        0.12689708173274994,
        -0.15796628594398499,
        -0.25692611932754517,
        0.4915224313735962,
        -0.011519803665578365,
        0.6819957494735718,
        -0.34465491771698,
        0.8506252765655518,
        0.06805339455604553,
        -0.4779881536960602,
        0.28561440110206604,
        0.10150148719549179,
        0.38762202858924866,
        0.11422184109687805,
        0.39365506172180176,
        0.1961282342672348,
        -0.41251665353775024,
        -0.191172257065773,
        0.3318765461444855,
        0.039525967091321945,
        -0.25369784235954285,
        -0.11989261209964752,
        0.05681823566555977,
        0.2926872670650482,
        -0.5654647946357727,
        -0.9079391956329346,
        -0.07853878289461136,
        0.2216193825006485,
        0.16259819269180298,
        -0.005061643663793802,
        0.1127360463142395,
        0.29047733545303345,
        0.020296867936849594,
        -0.12026353925466537,
        0.17877182364463806,
        -0.09575796127319336,
        0.08663397282361984,
        -0.37001535296440125,
        -0.1274721473455429,
        0.3347126245498657,
        -0.3190761208534241,
        -0.46594783663749695,
        0.21091511845588684,
        -0.6340442895889282,
        -0.056175220757722855,
        0.3156329393386841,
        0.09733528643846512,
        0.4637610912322998,
        0.5528321266174316,
        0.31236812472343445,
        0.27513957023620605,
        0.4841098487377167,
        0.33750954270362854,
        0.4036405384540558,
        -0.21778008341789246,
        0.25498589873313904,
        -0.3992197513580322,
        0.01926392875611782,
        -0.48734378814697266,
        -0.04024409130215645,
        0.055585216730833054,
        -0.33680325746536255,
        -0.5911411046981812,
        0.16571101546287537,
        -0.6138873100280762,
        -0.1057397797703743,
        0.054118771106004715,
        -0.5819066166877747,
        0.0015314859338104725,
        -0.0925869420170784,
        0.3550395369529724,
        0.19790761172771454,
        0.038868390023708344,
        0.6323661804199219,
        0.21095561981201172,
        0.018707143142819405,
        -0.3108413815498352,
        -0.10232547670602798,
        -0.10137411206960678,
        -0.0717487633228302,
        -0.21868588030338287,
        0.22438353300094604,
        0.5027240514755249,
        0.3147275149822235,
        -0.1950317621231079,
        0.2133583277463913,
        0.21677331626415253,
        -0.7041468024253845,
        -0.28920209407806396,
        -0.4842173159122467,
        0.3092568516731262,
        0.1451963633298874,
        0.21917201578617096,
        -0.03546401113271713,
        0.06489978730678558,
        0.12986359000205994,
        0.25873860716819763,
        -0.03000945970416069,
        0.10482857376337051,
        -0.06802570074796677,
        1.216956377029419,
        -0.6285703182220459,
        0.3967720866203308,
        0.1830800473690033,
        0.08061538636684418,
        -0.0687236338853836,
        -0.3281787633895874,
        0.8297296762466431,
        0.41231027245521545,
        0.48671236634254456,
        0.13477472960948944,
        0.24296747148036957,
        0.17754600942134857,
        0.10648513585329056,
        -0.3721352219581604,
        0.1030709370970726,
        0.18477344512939453,
        0.15322060883045197,
        -0.20310631394386292,
        -0.904934287071228,
        0.08396627008914948,
        0.39023029804229736,
        -0.33112794160842896,
        0.250850111246109,
        0.14999514818191528,
        0.14014752209186554,
        -0.08548659086227417,
        -0.12969084084033966,
        0.3120238184928894,
        -0.7454066872596741,
        -0.3367955684661865,
        -0.3335152268409729,
        0.24526655673980713,
        0.5406875014305115,
        -0.2447923719882965,
        0.21178756654262543,
        -0.16018632054328918,
        -0.24060900509357452,
        0.010251804254949093,
        -0.11060041934251785,
        0.3652270436286926,
        -0.41952282190322876,
        0.18776260316371918,
        0.7672416567802429,
        0.02111845649778843,
        0.11151053756475449,
        -0.04640907421708107,
        0.13310888409614563,
        -0.27327123284339905,
        0.08339909464120865,
        -0.23329992592334747,
        0.3265138864517212,
        0.48151320219039917,
        -0.6817998886108398,
        -0.17038249969482422,
        0.361595094203949,
        0.48135679960250854,
        -0.7463671565055847,
        0.28535196185112,
        -0.6747693419456482,
        -0.8631306886672974,
        -0.2208273559808731,
        0.4944802224636078,
        -0.541264533996582,
        -0.19091837108135223,
        0.13795040547847748,
        0.16249655187129974,
        0.3672201335430145,
        0.37526556849479675,
        0.052707720547914505,
        -0.19457483291625977,
        -0.47291359305381775,
        0.25276005268096924,
        -0.348396897315979,
        0.19172188639640808,
        -0.33103135228157043,
        0.33911511301994324,
        -0.5232720375061035,
        0.0944695994257927,
        0.2366621345281601,
        -0.3727882206439972,
        0.3869515061378479,
        0.46705755591392517,
        0.308817982673645,
        0.04198289290070534,
        0.4885563850402832,
        -0.10904594510793686,
        0.03819654509425163,
        -0.08694246411323547,
        -0.1301453411579132,
        0.7337826490402222,
        0.11946646869182587,
        0.005124689545482397,
        -0.19605760276317596,
        -0.06925974786281586,
        -1.0571266412734985,
        -0.4662739634513855,
        -0.13574209809303284,
        -0.23626016080379486,
        0.18802323937416077,
        -0.3661442995071411,
        0.2833789885044098,
        0.6420207619667053,
        0.2542569637298584,
        -0.1504143327474594,
        0.16906525194644928,
        0.12524893879890442,
        0.251838356256485,
        -0.1467205137014389,
        -0.050334371626377106,
        0.39847666025161743,
        -0.12126311659812927,
        -0.09239213913679123,
        0.10098131746053696,
        -0.7181106805801392,
        -0.3518138825893402,
        -0.17314092814922333,
        0.0945078432559967,
        -0.022129397839307785,
        0.13052962720394135,
        0.03816203773021698,
        0.21373461186885834,
        -0.3321693539619446,
        0.3088803291320801,
        -0.25752249360084534,
        -0.8048469424247742,
        0.41835546493530273,
        -0.8664315342903137,
        -0.6309220790863037,
        -0.38363218307495117,
        -0.06288285553455353,
        0.10704412311315536,
        -0.3553146719932556,
        0.5229516625404358,
        -0.5537801384925842,
        0.02184862457215786,
        -0.36038875579833984,
        -0.14716829359531403,
        0.6767698526382446,
        -0.12040472775697708,
        0.15437334775924683,
        -0.48380714654922485,
        0.3605903387069702,
        -0.2517474591732025,
        0.19086980819702148,
        0.0614887960255146,
        0.12200610339641571,
        0.06654869019985199,
        0.27682170271873474,
        0.40240925550460815,
        0.4502067565917969,
        0.03888196870684624,
        -0.46992579102516174,
        0.3824872076511383,
        0.5342925190925598,
        0.175531268119812,
        0.17285490036010742,
        -0.1887734979391098,
        -0.03617698326706886,
        -0.5049676299095154,
        -0.725031852722168,
        0.47339412569999695,
        -0.23054245114326477,
        -0.19459030032157898,
        0.07338327169418335,
        -0.06197570264339447,
        0.06437427550554276,
        0.519702136516571,
        0.36536797881126404,
        0.3176746070384979,
        -0.17466996610164642,
        0.6298216581344604,
        0.785039484500885,
        -0.38995063304901123,
        0.30842676758766174,
        -0.029007457196712494,
        0.14376427233219147,
        -0.5600256323814392,
        -0.2934933006763458,
        -0.23505254089832306,
        -0.2947617471218109,
        -0.4655091166496277,
        -0.7276463508605957,
        0.21753886342048645,
        -0.16568787395954132,
        -0.3252734839916229,
        -0.023737993091344833,
        0.10486533492803574,
        0.513525128364563,
        0.4735604226589203,
        0.4669279158115387,
        -0.0016804415499791503,
        0.6484031081199646,
        0.2253321260213852,
        0.2962038516998291,
        -0.21758924424648285,
        0.4771054685115814,
        -0.2406657487154007,
        0.15473870933055878,
        0.4018532335758209,
        0.37515637278556824,
        0.12720198929309845,
        -0.4603782892227173,
        0.580959141254425,
        0.2705256938934326,
        -0.08956195414066315,
        -0.30598947405815125,
        0.042111191898584366,
        -0.643002450466156,
        -0.25575727224349976,
        -0.46478572487831116,
        0.6941159963607788,
        0.16246888041496277,
        -0.6331608891487122,
        -0.026380853727459908,
        -0.0612352080643177,
        0.029188942164182663,
        0.1834118813276291,
        -0.01849197968840599,
        0.09682115167379379,
        -0.393283486366272,
        0.10307374596595764,
        0.3419242203235626,
        -0.19470910727977753,
        0.10817326605319977,
        0.06739360094070435,
        -0.03237216919660568,
        0.04477355256676674,
        -0.7625035643577576,
        -0.43426281213760376,
        0.23617985844612122,
        0.08708149939775467,
        -0.5548548698425293,
        -0.01568700186908245,
        0.5389049649238586,
        0.4569833278656006,
        0.4322131872177124,
        0.4250272512435913,
        0.37286365032196045,
        0.07697121053934097,
        0.3975212574005127,
        -0.30962225794792175,
        -0.25094032287597656,
        -0.35997268557548523,
        0.4960709810256958,
        0.4111083447933197,
        -0.3571098744869232,
        -1.0309205055236816,
        -0.6998190879821777,
        0.8664419054985046,
        0.6515718698501587,
        0.429415762424469,
        0.4443531036376953,
        0.39248770475387573,
        0.8085532188415527,
        0.4343206584453583,
        0.07018733024597168,
        0.0651787593960762,
        0.25684186816215515,
        0.08801496773958206,
        0.16236147284507751,
        0.792231023311615,
        0.28110435605049133,
        -0.31369009613990784,
        -0.45750609040260315,
        -0.03260032832622528,
        0.27111414074897766,
        -0.1400681585073471,
        0.31347909569740295,
        0.3580018877983093,
        0.29593655467033386,
        -0.5393081903457642,
        0.36291953921318054,
        0.21925805509090424,
        -0.5399434566497803,
        -0.1203005462884903,
        -0.011211379431188107,
        -0.1364058554172516,
        -0.2220364511013031,
        -0.5495232343673706,
        -0.11549638211727142,
        0.07426507025957108,
        0.37574926018714905,
        -0.04238775372505188,
        -0.5482147932052612,
        0.3528344929218292,
        0.6544593572616577,
        0.22093281149864197,
        0.4195731580257416,
        -0.16666312515735626,
        -0.6894266605377197,
        0.2813015282154083,
        0.19547434151172638,
        0.32732290029525757,
        0.3292466402053833,
        0.444362998008728,
        0.05821234732866287,
        0.13125160336494446,
        0.4026707410812378,
        -0.33445924520492554,
        0.20120127499103546,
        -0.17612451314926147,
        0.04168225824832916,
        0.19791913032531738,
        0.4670201539993286,
        -0.513883650302887,
        -0.4609074592590332,
        0.021136052906513214,
        0.45951229333877563,
        -0.2747544050216675,
        -0.5972866415977478,
        1.0362420082092285,
        0.04269492253661156,
        -0.13240478932857513,
        0.022280046716332436,
        0.1856084167957306,
        0.0033955927938222885,
        0.7723985910415649,
        0.28768494725227356,
        -0.1644057184457779,
        -0.04889986664056778,
        0.07142536342144012,
        0.17300692200660706,
        0.6277152895927429,
        1.0012142658233643,
        0.4993121325969696,
        -0.03593754768371582,
        0.20063631236553192,
        -0.0544838048517704,
        -0.5750972032546997,
        -0.5056148171424866,
        -0.15706764161586761,
        0.21887607872486115,
        -0.16281960904598236,
        0.007103438954800367,
        -0.38070300221443176,
        -0.12995974719524384,
        -0.4314645528793335,
        -0.49608370661735535,
        0.37166765332221985,
        0.4659419655799866,
        0.1362287998199463,
        0.5612412691116333,
        -0.6234712600708008,
        -0.33663275837898254,
        -0.00916450098156929,
        -0.5393999218940735,
        -0.10132526606321335,
        -0.13127849996089935,
        0.026240218430757523,
        0.1841854751110077,
        -0.16032405197620392,
        0.3230728209018707,
        -0.527834415435791,
        -0.19912569224834442,
        0.1822880655527115,
        0.3085401952266693,
        -0.3918727934360504,
        -0.5336072444915771,
        -0.2574924826622009,
        -0.29819247126579285,
        -0.1266271471977234,
        -0.24556569755077362,
        0.06830371171236038,
        -0.16577506065368652,
        -0.383396178483963,
        -0.17667482793331146,
        0.009129740297794342,
        0.1616496443748474,
        -0.14829938113689423,
        0.3078707456588745,
        -0.2637934386730194,
        0.05241980403661728,
        0.037188656628131866,
        -0.5655112862586975,
        0.0724339559674263,
        -0.02803277038037777,
        -0.4436570107936859,
        -0.3180070221424103,
        0.7104276418685913,
        -1.015075445175171,
        0.3399747610092163,
        0.3191925287246704,
        -0.5533702969551086,
        0.26676321029663086,
        0.11195611208677292,
        -0.2463373988866806,
        0.03746262192726135,
        0.4684818387031555,
        -0.4095098078250885,
        0.23710107803344727,
        -0.28587406873703003,
        -0.08289270102977753,
        0.10615357011556625,
        -0.19768652319908142,
        0.14672863483428955,
        -0.18897593021392822,
        -0.20411095023155212,
        0.6857157349586487,
        0.9143695831298828,
        -0.3188847601413727,
        -0.38478919863700867,
        0.06259702146053314,
        0.4939236342906952,
        0.19955845177173615,
        -1.1509548425674438,
        0.6249046921730042,
        0.025409871712327003,
        -0.060149259865283966,
        -0.24969328939914703,
        0.5660957098007202,
        -0.22221197187900543,
        0.300620436668396,
        -0.5276657342910767,
        0.6761926412582397,
        -0.27651268243789673,
        0.15017257630825043,
        -0.16088929772377014,
        0.8229492902755737,
        -0.3177119493484497,
        -0.7893646955490112,
        -0.6136186122894287,
        0.0948043093085289,
        0.18928742408752441,
        -0.6894348859786987,
        -0.1380244791507721,
        0.6998396515846252,
        -0.4426612854003906,
        -0.08226905763149261,
        0.4001401662826538,
        0.26040053367614746,
        0.11691446602344513,
        -0.7537242770195007,
        -0.33227473497390747,
        0.5899692177772522,
        -0.3934701383113861,
        -0.5998550653457642,
        0.3764467239379883,
        0.4039965569972992,
        -0.19485080242156982,
        0.08847100287675858,
        0.1462550163269043,
        -0.29032450914382935,
        -0.3649607002735138,
        -0.06703721731901169,
        0.1529412865638733,
        -0.17290009558200836,
        -0.30307725071907043,
        -0.002291423501446843,
        -0.38858741521835327,
        -0.5748359560966492,
        -0.5199048519134521,
        0.28745073080062866,
        -0.11010242998600006,
        -0.6947216391563416,
        0.20808741450309753,
        -0.6343129277229309,
        -0.6062657833099365,
        0.45250385999679565,
        0.3289112150669098,
        -0.14596349000930786,
        0.5774049758911133,
        0.3774040639400482,
        -0.19115500152111053,
        -0.4307187497615814,
        -0.4087766110897064,
        0.3496074080467224,
        -0.10338441282510757,
        -0.2832481861114502,
        0.21590514481067657,
        -0.11938208341598511,
        -0.14318937063217163,
        0.5473721027374268,
        -0.29435327649116516,
        -0.38253703713417053,
        0.1707872748374939,
        -0.281015008687973,
        -0.5313000082969666,
        0.25486230850219727,
        0.2926428020000458,
        0.18343043327331543,
        -0.3589659333229065,
        0.31768929958343506,
        0.1927156001329422,
        -0.4258579909801483,
        -0.22650976479053497,
        -0.13258308172225952,
        0.07441627234220505,
        -0.14193861186504364,
        -0.15397238731384277,
        0.39102742075920105,
        0.11637426167726517,
        0.5091742873191833,
        0.09218930453062057,
        -0.6748162508010864,
        0.37619489431381226,
        -0.30436989665031433,
        0.3004007339477539,
        -0.267799973487854,
        -0.15054582059383392,
        -0.21668586134910583,
        0.3858424127101898,
        -0.653867244720459,
        0.00166924053337425,
        0.30432265996932983,
        0.7105857729911804,
        0.086797334253788,
        -0.5519861578941345,
        0.25094327330589294,
        -0.0725863054394722,
        0.33402591943740845,
        -0.03837273642420769,
        0.14244331419467926,
        -0.2941708564758301,
        -0.9174807071685791,
        0.03800976648926735,
        0.3751855492591858,
        0.12671774625778198,
        0.48164060711860657,
        0.43410807847976685,
        0.0489572174847126,
        -0.36556652188301086,
        -0.04464103654026985,
        0.34149372577667236,
        0.41994449496269226,
        0.47946590185165405,
        0.38463011384010315,
        -0.0455879271030426,
        0.1808430403470993,
        -0.3641792833805084,
        -0.4330905079841614,
        -0.09132799506187439,
        0.27568602561950684,
        -0.6880499720573425,
        0.37744441628456116,
        -0.10471461713314056,
        -0.16018794476985931,
        -0.39471328258514404,
        -0.46053704619407654,
        0.2134896218776703,
        0.5678120255470276,
        0.1019541472196579,
        0.30352550745010376,
        -0.08725190162658691,
        -0.34245720505714417,
        0.09077361226081848,
        0.3057701289653778,
        -0.24071455001831055,
        -0.6280198097229004,
        0.32294487953186035,
        -0.2179245501756668,
        0.21000275015830994,
        -0.42093178629875183,
        -0.45430952310562134,
        0.09844406694173813,
        -1.0825579166412354,
        -0.5914890766143799,
        -0.27858495712280273,
        -0.26455673575401306,
        -0.31766650080680847,
        -0.10355130583047867,
        -0.06983029842376709,
        0.1066255271434784,
        0.026919685304164886,
        -0.46892258524894714,
        0.03776413947343826,
        -0.016484394669532776,
        0.6733884811401367,
        -0.14744733273983002,
        0.3192880153656006,
        -0.9415398836135864,
        -0.7003193497657776,
        0.42774495482444763,
        -0.21870367228984833,
        0.6316443085670471,
        0.0033552434761077166,
        0.7621427774429321,
        0.2844253480434418,
        -0.6078928709030151,
        0.04388857260346413,
        0.168929785490036,
        0.4483015537261963,
        0.26282355189323425,
        0.5125702023506165,
        0.20460836589336395,
        0.07017498463392258,
        0.16828933358192444,
        -0.18257726728916168,
        0.047870662063360214,
        -0.21632522344589233,
        -0.2641625702381134,
        -0.02002115547657013,
        -0.14727048575878143,
        -0.13857367634773254,
        0.5840979218482971,
        0.5752490162849426,
        0.5294747352600098,
        0.19039055705070496,
        -0.47054558992385864,
        0.2648204267024994,
        -0.4279506504535675,
        -0.1950559914112091,
        0.46347594261169434,
        0.17378820478916168,
        -0.5970286130905151,
        -0.10965730994939804,
        0.20793859660625458,
        0.012186811305582523,
        -0.501089334487915,
        0.31196650862693787,
        -0.3964623510837555,
        0.06598956882953644,
        0.48077094554901123,
        -0.26993492245674133,
        -0.20243042707443237,
        0.8416405916213989,
        -0.22262486815452576,
        0.312643438577652,
        -0.6201913952827454,
        -0.19451242685317993,
        0.5986815690994263,
        -0.15171265602111816,
        0.2840534448623657,
        0.041936855763196945,
        -0.2187919020652771,
        0.32384470105171204,
        -0.4876258969306946,
        0.18353815376758575,
        0.30424371361732483,
        -0.43457338213920593,
        -0.8715213537216187,
        0.4029946029186249,
        -0.39716827869415283,
        -0.8936381936073303,
        -0.02295280434191227,
        -0.14993029832839966,
        0.36577653884887695,
        0.22620894014835358,
        -0.41088762879371643,
        -0.08097612857818604,
        0.27645787596702576,
        -0.08104409277439117,
        -0.11785963177680969,
        0.7463845014572144,
        -0.3918715715408325,
        -0.3825961947441101,
        0.33877167105674744,
        0.14932355284690857,
        -0.06190185248851776,
        -0.07825707644224167,
        0.7858587503433228,
        0.4797293543815613,
        -0.0499483086168766,
        0.4794929623603821,
        0.05252520367503166,
        -0.5069958567619324,
        -0.07570397853851318,
        -0.31728413701057434,
        0.10308939218521118,
        0.060503870248794556,
        -0.28286299109458923,
        -0.35406315326690674,
        0.5644609332084656,
        0.2375306338071823,
        -0.058637406677007675,
        -0.476131796836853,
        0.07060942053794861,
        -0.3238953948020935,
        -0.4443800449371338,
        -0.3913778066635132,
        -0.5368988513946533,
        -0.6279996037483215,
        0.13094116747379303,
        -0.15944676101207733,
        -0.15281641483306885,
        -0.25275227427482605,
        -0.20965221524238586,
        -0.011914931237697601,
        -0.100095734000206,
        0.6411883234977722,
        0.02385144867002964,
        -0.43126344680786133,
        0.0442642904818058,
        0.1542998105287552,
        -0.13338790833950043,
        -0.34158962965011597,
        -0.03925328329205513,
        -0.06971219927072525,
        0.21941043436527252,
        0.7621549367904663,
        0.6290536522865295,
        -0.470723420381546,
        -0.15109442174434662,
        -0.0889090895652771,
        -0.07803925126791,
        0.3093976676464081,
        0.20531663298606873,
        -0.19210633635520935,
        0.1844397634267807,
        0.3630739748477936,
        0.430566668510437,
        -0.4997560381889343,
        -0.12218189239501953,
        -0.1936437040567398,
        0.5590078234672546,
        0.20895685255527496,
        0.5136873126029968,
        -0.2802770137786865,
        -0.5834693312644958,
        0.25999027490615845,
        0.001878551789559424,
        -0.06789079308509827,
        -0.14392587542533875,
        -0.074351966381073,
        0.771163821220398,
        -0.2808366119861603,
        -0.2539674937725067,
        0.1450934261083603,
        -0.09314703196287155,
        0.0101524218916893,
        0.43859249353408813,
        0.6248707175254822,
        -0.7151792645454407,
        -0.7171841859817505,
        0.22447244822978973,
        0.09095021337270737,
        -0.8151928782463074,
        -0.1884835809469223,
        -0.7916696071624756,
        -0.8078591227531433,
        -0.05224231258034706,
        -0.26767921447753906,
        0.6042718887329102,
        -1.0713391304016113,
        0.48006755113601685,
        -0.2754662334918976,
        -0.37929025292396545,
        0.06387351453304291,
        -0.26903048157691956,
        0.33942943811416626,
        0.1969749629497528,
        -0.06843587011098862,
        -0.8183068037033081,
        0.20267345011234283,
        -0.1606570929288864,
        0.11783454567193985,
        0.40095868706703186,
        0.11728734523057938,
        0.3322054445743561,
        0.5337656140327454,
        -0.27917855978012085,
        -0.0913027971982956,
        -0.051761891692876816,
        -0.6663002371788025,
        -0.7929348945617676,
        -0.4022334814071655,
        -0.34197714924812317,
        -0.16968479752540588,
        -0.24239107966423035,
        0.04229006916284561,
        0.014728672802448273,
        0.17323388159275055,
        0.5720244646072388,
        0.3945139944553375,
        -0.22319193184375763,
        0.1133977472782135,
        -0.4710559844970703,
        -0.17922499775886536,
        -0.12935052812099457,
        0.20658190548419952,
        -0.014089622534811497,
        0.5967750549316406,
        0.19217278063297272,
        -0.7228994369506836,
        -0.0574265718460083,
        0.08412764966487885,
        -0.22584988176822662,
        0.2743878662586212,
        0.2998688817024231,
        0.30654218792915344,
        0.40479984879493713,
        0.7352997660636902,
        0.11490309983491898,
        -0.06213201954960823,
        -0.15054085850715637,
        0.13724547624588013,
        -0.29428520798683167,
        -0.07003742456436157,
        0.07935263961553574,
        -0.12157509475946426,
        -0.1480911672115326,
        0.6917903423309326,
        -0.14656834304332733,
        -0.2630936801433563,
        0.023972800001502037,
        -0.03504033759236336,
        -0.3609694242477417,
        0.22882825136184692,
        0.13697931170463562,
        0.05094291642308235,
        -0.15222972631454468,
        -0.6237229108810425,
        -0.038743700832128525,
        0.0017376841278746724,
        0.07829373329877853,
        -0.27471405267715454,
        0.5854001045227051,
        -0.7657195925712585,
        0.06697933375835419,
        -0.45055121183395386,
        0.16801923513412476,
        -0.4736202359199524,
        -0.01896766759455204,
        -0.4888256788253784,
        -0.43377819657325745,
        0.29970845580101013,
        0.4647734463214874,
        0.5064265131950378,
        -0.6553828120231628,
        -0.2215016782283783,
        -0.12927457690238953,
        0.17917153239250183,
        -0.2535262405872345,
        0.38215401768684387,
        -0.03770775720477104,
        -0.20360973477363586,
        -0.19452138245105743,
        -0.18036438524723053,
        0.3741224408149719,
        -0.21490070223808289,
        -0.17335787415504456,
        -0.20628856122493744,
        -0.27489638328552246,
        -0.12208835780620575,
        -0.1370331346988678,
        -0.1688746064901352,
        -0.29100823402404785,
        0.27622607350349426,
        0.2161613404750824,
        -0.31170186400413513,
        -0.0516774021089077,
        -0.15854035317897797,
        0.4012219309806824,
        0.38351401686668396,
        -0.14742118120193481,
        -0.31938114762306213,
        0.3939249515533447,
        -0.5712836980819702,
        -0.43029236793518066,
        0.23529142141342163,
        -0.10670863837003708,
        -0.2778622508049011,
        -0.5283578038215637,
        -0.28098809719085693,
        0.026324277743697166,
        -0.33260947465896606,
        0.20448800921440125,
        0.04940853640437126,
        0.5188400745391846,
        0.06906664371490479,
        -0.0051279570907354355,
        0.5393198132514954,
        0.6616905927658081,
        0.3494548797607422,
        0.36033472418785095,
        0.017294075340032578,
        -0.2277906984090805,
        -0.5856406092643738,
        -0.39204224944114685,
        -0.05705593153834343,
        0.03593162074685097,
        -0.5911797881126404,
        -0.11730112135410309,
        -0.04520092159509659,
        -0.0835874006152153,
        -0.19501346349716187,
        0.5312954783439636,
        0.5254653692245483,
        -0.6109699606895447,
        -0.5865472555160522,
        0.9184316992759705,
        0.30510419607162476,
        0.34605416655540466,
        0.23277519643306732,
        0.4433639347553253,
        0.03537815809249878,
        0.39900344610214233,
        0.029291914775967598,
        0.43805554509162903,
        -0.27271753549575806,
        0.6243813037872314,
        -0.20694796741008759,
        -0.41743752360343933,
        -0.7207165360450745,
        -0.42991355061531067,
        -0.6917339563369751,
        -0.14912523329257965,
        0.12421374768018723,
        0.02819964289665222,
        0.03000931814312935,
        -0.2913771867752075,
        0.19309324026107788,
        -0.46901068091392517,
        -0.23394930362701416,
        -0.08618440479040146,
        -0.049322932958602905,
        -0.04420892521739006,
        -0.08227445185184479,
        0.33169302344322205,
        -0.17715515196323395,
        0.4011421501636505,
        0.1916772574186325,
        -1.0650378465652466,
        -0.3626311421394348,
        0.22857969999313354,
        0.10622076690196991,
        0.6930117607116699,
        0.23678185045719147,
        0.40370920300483704,
        0.2707606852054596,
        -0.5665794610977173,
        -0.06794779002666473,
        0.12364624440670013,
        0.007882748730480671,
        0.33384910225868225,
        -0.04224804788827896,
        -0.38835859298706055,
        -0.10632583498954773,
        -0.006376802921295166,
        0.5198130011558533,
        0.23463617265224457,
        -0.5684319138526917,
        -0.00011774777522077784,
        -0.6134610176086426,
        -0.18984369933605194,
        0.3039446771144867,
        -0.20063498616218567,
        -1.0677293539047241,
        0.4661025404930115,
        0.158913716673851,
        -0.11422385275363922,
        0.008307493291795254,
        -0.4927609860897064,
        0.3456895351409912,
        -0.25369885563850403,
        0.42974069714546204,
        -0.13409225642681122,
        0.10656747967004776,
        0.1762329787015915,
        0.06301670521497726,
        0.53563392162323,
        0.4644530713558197,
        0.024318208917975426,
        0.04036044329404831,
        -0.02522016130387783,
        -0.015753356739878654,
        0.37112748622894287,
        0.29841986298561096,
        -0.6893706321716309,
        -0.3133469820022583,
        -0.22357560694217682,
        0.4880083501338959,
        -0.17914976179599762,
        0.5947670936584473,
        0.018289370462298393,
        -0.6983394622802734,
        -0.5313276648521423,
        -0.2319226861000061,
        -0.36261337995529175,
        0.6375733613967896,
        -0.9015324711799622,
        -0.12046283483505249,
        0.35394394397735596,
        0.03115692362189293,
        -0.308027446269989,
        -0.6071196794509888,
        0.8938085436820984,
        0.7132587432861328,
        -0.6583434343338013,
        0.2213653028011322,
        0.5879594087600708,
        -0.03707009181380272,
        0.2079082578420639,
        0.1156030148267746,
        -0.4989914298057556,
        0.09875215590000153,
        -0.24457547068595886,
        0.08422800898551941,
        -0.45966410636901855,
        -0.10937493294477463,
        -0.0707676112651825,
        -0.7183835506439209,
        0.12374190241098404,
        -0.009111352264881134,
        0.059326812624931335,
        0.09460274875164032,
        0.2303430587053299,
        -0.4935953617095947,
        0.2938212454319,
        0.29534563422203064,
        0.8994558453559875,
        -0.726830244064331,
        0.03856947645545006,
        0.1391303688287735,
        -0.35647276043891907,
        -0.5764200687408447,
        -0.12354343384504318,
        0.6132439374923706,
        0.16035524010658264,
        -0.2629162073135376,
        0.3352312743663788,
        -0.08255530148744583,
        0.1585131287574768,
        -0.3502563238143921,
        -0.3871318995952606,
        0.059581559151411057,
        -0.20825308561325073,
        -0.1677597016096115,
        -0.2247374951839447,
        -0.6230402588844299,
        -0.04605717211961746,
        0.448612779378891,
        -0.6668639183044434,
        -0.11571015417575836,
        0.38528943061828613,
        -0.505939781665802,
        0.575600802898407,
        -0.6855598092079163,
        -0.18721948564052582,
        0.40949270129203796,
        -0.3545568287372589,
        -0.1600227802991867,
        0.6009749174118042,
        -0.23483337461948395,
        0.17070125043392181,
        0.1897767186164856,
        0.6654024124145508,
        -0.4416384696960449,
        0.580295205116272,
        0.3204715847969055,
        0.13981492817401886,
        -0.32914984226226807,
        -0.5693655610084534,
        0.07127207517623901,
        -0.2045990526676178,
        -0.7855886816978455,
        -0.5711990594863892,
        -0.034517768770456314,
        0.11008600890636444,
        0.5422430634498596,
        0.5640356540679932,
        0.06666751205921173,
        0.4889319837093353,
        -0.16082705557346344,
        0.5037045478820801,
        0.2438221275806427,
        0.24838756024837494,
        -0.03677705302834511,
        -0.1376785784959793,
        0.16613012552261353,
        0.43784892559051514,
        -0.10957582294940948,
        -0.42876872420310974,
        0.30033695697784424,
        -1.0036187171936035,
        0.06427066773176193,
        -0.35910019278526306,
        0.2673877477645874,
        -0.04167396202683449,
        -0.13576191663742065,
        -0.5131272077560425,
        0.08915485441684723,
        0.6122771501541138,
        0.2462887465953827,
        0.37459224462509155,
        0.3397057056427002,
        -0.16554948687553406,
        -0.038397300988435745,
        -0.7063475847244263,
        -0.27988263964653015,
        0.04972045123577118,
        -0.2423526793718338,
        0.310883492231369,
        0.4312865436077118,
        -0.5691317915916443,
        0.697689414024353,
        0.41462525725364685,
        -0.44418206810951233,
        0.030405255034565926,
        1.0908550024032593,
        0.18667343258857727,
        0.1631648689508438,
        -0.4944918751716614,
        0.6727859973907471,
        -0.35477498173713684,
        -0.06081194058060646,
        0.4673891067504883,
        -0.019202152267098427,
        -0.4896945357322693,
        0.019313180819153786,
        0.0675465315580368,
        0.2977202236652374,
        -0.3538242280483246,
        0.39067935943603516,
        -0.0614677257835865,
        -0.6068651080131531,
        0.36426952481269836,
        0.40397584438323975,
        0.20733799040317535,
        -0.46050092577934265,
        -0.5942995548248291,
        0.6285203099250793,
        -0.04316824674606323,
        -0.3316608965396881,
        0.1262379288673401,
        -0.6964269280433655,
        -0.42660003900527954,
        0.5971212983131409,
        -0.3257931172847748,
        -0.5375232100486755,
        0.3829883337020874,
        0.8009815812110901,
        -0.18260277807712555,
        -0.10644370317459106,
        0.559051513671875,
        0.22265520691871643,
        0.05715300142765045,
        0.011048167943954468,
        0.48966747522354126,
        0.1062396690249443,
        0.13914848864078522,
        0.015124308876693249,
        0.7597193717956543,
        -0.17820686101913452,
        0.34174779057502747,
        0.887897253036499,
        0.10992499440908432,
        -0.11398959159851074,
        -0.1653185784816742,
        0.16819939017295837,
        0.8956918120384216,
        -0.13196083903312683,
        -0.26731279492378235,
        0.20162978768348694,
        -0.45222166180610657,
        -0.2937241494655609,
        0.28237900137901306,
        0.2909710109233856,
        -0.3808143138885498,
        0.3156000077724457,
        -0.23645596206188202,
        0.19049367308616638,
        0.19069606065750122,
        -0.28342777490615845,
        -0.38159921765327454,
        0.5009418725967407,
        -0.3388260006904602,
        0.5842309594154358,
        -0.14710821211338043,
        -1.2062054872512817,
        0.8563425540924072,
        -0.0670294389128685,
        0.013154406100511551,
        -0.08406874537467957,
        -0.1390349417924881,
        -0.6318562030792236,
        -0.15473897755146027,
        0.18960125744342804,
        0.0715494379401207,
        0.27939504384994507,
        0.31389862298965454,
        -0.22176288068294525,
        -0.265811562538147,
        -0.16958463191986084,
        0.2367350459098816,
        -0.07958490401506424,
        -0.2926894426345825,
        -0.13760755956172943,
        0.32000666856765747,
        0.23138748109340668,
        0.7490454316139221,
        0.7611128687858582,
        -0.15403211116790771,
        -0.27691197395324707,
        0.0784185379743576,
        0.14209045469760895,
        0.10208015143871307,
        0.1911269873380661,
        0.20926235616207123,
        0.013914484530687332,
        0.12666688859462738,
        0.44892045855522156,
        0.17505407333374023,
        -0.5341914296150208,
        0.010517884977161884,
        0.29098618030548096,
        -0.11165549606084824,
        0.914445161819458,
        -1.0494937896728516,
        0.009295138530433178,
        -0.4197792112827301,
        0.006279395427554846,
        -0.16509230434894562,
        0.06043184548616409,
        0.5158070921897888,
        0.393984854221344,
        0.37314537167549133,
        -0.3593085706233978,
        -0.222713902592659,
        -0.06306549161672592,
        -0.05802101641893387,
        -0.1608840376138687,
        -0.1869645118713379,
        0.1170426607131958,
        -0.25563591718673706,
        0.19101685285568237,
        -1.0030452013015747,
        -0.5234217643737793,
        0.214397594332695,
        0.3817932903766632,
        0.27794361114501953,
        -0.6180004477500916,
        0.32578450441360474,
        -0.344352126121521,
        -0.5339685082435608,
        -0.10426265746355057,
        0.1553010493516922,
        0.08346908539533615,
        -0.3352489471435547,
        -0.37577787041664124,
        0.5078393816947937,
        0.36630678176879883,
        0.4086800515651703,
        0.13983063399791718,
        -0.25104400515556335,
        -0.2478504329919815,
        0.16187350451946259,
        0.05726974084973335,
        -0.32586610317230225,
        -0.14032594859600067,
        0.2935248911380768,
        -0.6137458682060242,
        -0.0023685290943831205,
        0.08754787594079971,
        0.045491330325603485,
        -0.43700116872787476,
        -0.2569834291934967,
        0.08409877866506577,
        -0.0434480756521225,
        0.3675905466079712,
        -0.5320242047309875,
        -0.3900653123855591,
        0.049396347254514694,
        -0.24058619141578674,
        0.47156915068626404,
        -0.8215990662574768,
        0.4516324996948242,
        0.22928212583065033,
        0.2296074777841568,
        0.012108518742024899,
        0.534803032875061,
        0.6423548460006714,
        0.18581445515155792,
        -0.17854370176792145,
        -0.39557400345802307,
        0.1771368682384491,
        -0.08398298174142838,
        0.652439534664154,
        0.018840579316020012,
        0.5374553799629211,
        0.375983864068985,
        0.47288942337036133,
        -0.3379913866519928,
        -0.949501097202301,
        0.7348726987838745,
        -0.10154475271701813,
        0.12875165045261383,
        -0.046514421701431274,
        -0.11810068041086197,
        -0.5227811932563782,
        -0.018706344068050385,
        -0.09677346795797348,
        0.2426314502954483,
        0.23243913054466248,
        0.264748752117157,
        0.164747416973114,
        -0.11221518367528915,
        0.4410552680492401,
        0.0792679712176323,
        0.14719824492931366,
        0.391828328371048,
        -0.03209540620446205,
        0.8798409700393677,
        -1.0850824117660522,
        0.30464836955070496,
        -0.1142537072300911,
        -0.16508916020393372,
        -0.30151277780532837,
        0.29920944571495056,
        0.5947072505950928,
        0.2173328548669815,
        -0.13056010007858276,
        0.23706106841564178,
        0.11256452649831772,
        0.21059942245483398,
        0.16112202405929565,
        -0.5350030660629272,
        0.07873072475194931,
        0.3609849512577057,
        0.06952117383480072,
        0.12723763287067413,
        -0.19229167699813843,
        -0.6411860585212708,
        -0.4267764985561371,
        0.034653082489967346,
        -0.5233899354934692,
        -0.05561669543385506,
        0.4226374626159668,
        0.32437753677368164,
        0.36793234944343567,
        0.05483906343579292,
        0.39912718534469604,
        0.09650227427482605,
        0.10293938964605331,
        0.4738490879535675,
        0.3432645797729492,
        0.23045870661735535,
        -0.0009078377624973655,
        -0.06694293022155762,
        -0.44895392656326294,
        -0.2931497097015381,
        0.4928697943687439,
        0.02784769982099533,
        0.1295527070760727,
        0.7230104804039001,
        0.049205511808395386,
        -0.5631132125854492,
        0.03189520537853241,
        -0.06538942456245422,
        -0.2077227234840393,
        -0.0642787292599678,
        0.5710940957069397,
        -0.07497847825288773,
        0.10878486186265945,
        -0.13616806268692017,
        0.4627191126346588,
        0.09222839772701263,
        -0.39416560530662537,
        0.2892175316810608,
        0.5882949233055115,
        -0.721997082233429,
        0.21474513411521912,
        0.675456166267395,
        0.162791445851326,
        -0.032945066690444946,
        0.3686577081680298,
        -0.33346253633499146,
        -0.23941050469875336,
        0.07616214454174042,
        -0.06502464413642883,
        0.47979867458343506,
        -0.17797686159610748,
        0.2919652760028839,
        -0.04172215983271599,
        0.5888449549674988,
        -0.03224947303533554,
        -0.2662467658519745,
        0.1497063785791397,
        -0.2512196898460388,
        0.06146274879574776,
        -0.349244087934494,
        0.08572866022586823,
        0.19319240748882294,
        -0.6943255066871643,
        0.017451120540499687,
        0.416351318359375,
        -0.4352022707462311,
        -0.25295600295066833,
        0.06955272704362869,
        0.36105087399482727,
        0.46278369426727295,
        -0.009619604796171188,
        0.3926577568054199,
        -0.06930404156446457,
        0.05393543839454651,
        -0.07806884497404099,
        0.1641087532043457,
        -0.21588939428329468,
        -0.7882508039474487,
        -0.07176613062620163,
        -0.16845229268074036,
        0.08227162063121796,
        -0.14585702121257782,
        -0.11780980974435806,
        0.1065874993801117,
        0.11448458582162857,
        0.08801096677780151,
        -0.32540059089660645,
        -0.4016944169998169,
        -0.08795926719903946,
        -0.7315562963485718,
        0.004152978304773569,
        0.6328535079956055,
        -0.09785981476306915,
        0.5583366751670837,
        -0.06142205744981766,
        -0.1777874231338501,
        0.7643142938613892,
        -0.08095794916152954,
        -0.5175905227661133,
        0.24956367909908295,
        0.16595971584320068,
        -0.6272119283676147,
        0.1894296258687973,
        0.6095808744430542,
        -0.5797404050827026,
        -0.4139554798603058,
        -0.1658768653869629,
        -0.23178958892822266,
        0.2240927666425705,
        0.06492999941110611,
        0.0403696745634079,
        0.527127206325531,
        0.17048652470111847,
        0.2614339292049408,
        0.4718032777309418,
        0.18693111836910248,
        0.5845687985420227,
        -0.6034822463989258,
        0.15373879671096802,
        -0.35917675495147705,
        0.6200281381607056,
        0.25904226303100586,
        0.15242771804332733,
        -0.7380868792533875,
        -0.2184322476387024,
        0.13407842814922333,
        -0.26627790927886963,
        -0.11059059947729111,
        0.1987334042787552,
        -0.1142481192946434,
        0.6760261654853821,
        0.2702091634273529,
        -0.12762075662612915,
        -0.14088596403598785,
        0.047457918524742126,
        0.35625410079956055,
        0.010214656591415405,
        -0.2863299250602722,
        -0.026618385687470436,
        -0.09484472870826721,
        0.034217968583106995,
        -0.6924639344215393,
        0.17954927682876587,
        -0.47656187415122986,
        0.19657756388187408,
        0.16155274212360382,
        -0.11315614730119705,
        0.38760438561439514,
        -0.1578020453453064,
        -0.3533070683479309,
        -0.5001624822616577,
        0.46693170070648193,
        -0.41389796137809753,
        -0.2812863886356354,
        0.6952412724494934,
        0.2667233645915985,
        0.4920566976070404,
        0.5261660814285278,
        0.43006405234336853,
        0.41093286871910095,
        -0.20431551337242126,
        -0.030778754502534866,
        -0.003019686322659254,
        -0.4220745265483856,
        -0.10628490149974823,
        0.14658020436763763,
        0.6874300837516785,
        0.1297801285982132,
        -0.2171706110239029,
        0.03185481205582619,
        -0.5046632885932922,
        0.4043601155281067,
        0.028162822127342224,
        0.1298716962337494,
        -0.4862883388996124,
        -0.07807614654302597,
        -0.21406935155391693,
        -0.6705486178398132,
        -0.17447926104068756,
        0.32614657282829285,
        0.08123763650655746,
        0.13468480110168457,
        0.15216010808944702,
        0.46709316968917847,
        -0.7611562013626099,
        -0.2567703425884247,
        0.22470055520534515,
        -0.2858695983886719,
        0.08243024349212646,
        -0.32605794072151184,
        0.4565833508968353,
        0.13174866139888763,
        0.2135642021894455,
        -0.1519453078508377,
        0.21319368481636047,
        0.25128090381622314,
        -0.2221864014863968,
        -0.5452920794487,
        -0.18330897390842438,
        0.20821312069892883,
        0.4356573820114136,
        -0.17021209001541138,
        0.4358610510826111,
        -0.21748371422290802,
        0.7174009680747986,
        -0.3146907687187195,
        -0.47315654158592224,
        0.12734654545783997,
        -0.019866088405251503,
        0.5257225036621094,
        -0.3228020966053009,
        -0.48469725251197815,
        0.06411620229482651,
        0.03766849637031555,
        -0.11689996719360352,
        0.6071248054504395,
        0.47206637263298035,
        -0.27529698610305786,
        -0.25262388586997986,
        0.3886483907699585,
        -0.426030695438385,
        0.6320194005966187,
        -0.8031278252601624,
        0.02898760512471199,
        -0.2816968262195587,
        0.3440326154232025,
        -0.16922663152217865,
        0.30858707427978516,
        -0.4075789451599121,
        0.8825880885124207,
        0.48273465037345886,
        0.43544453382492065,
        -0.5739059448242188,
        -0.480621874332428,
        0.06797318905591965,
        -0.3998353183269501,
        0.574373185634613,
        -0.5309213995933533,
        0.11020076274871826,
        -0.6637078523635864,
        -0.5232176184654236,
        -0.005243485327810049,
        0.20424741506576538,
        0.19588890671730042,
        0.030762339010834694,
        0.0020012715831398964,
        0.4919286072254181,
        0.4392995834350586,
        -0.22350916266441345,
        0.20935671031475067,
        0.21406033635139465,
        -0.3201662003993988,
        -0.100372813642025,
        1.3782217502593994,
        -0.25330647826194763,
        -0.6829932928085327,
        -0.07248031347990036,
        -0.4428122341632843,
        0.10123693943023682,
        -0.0943862572312355,
        0.1375536471605301,
        0.5934455394744873,
        0.179717555642128,
        0.1363951563835144,
        0.43590572476387024,
        -0.008848627097904682,
        0.6687058210372925,
        -0.07814657688140869,
        -0.4696369469165802,
        0.46917271614074707,
        -0.3234650194644928,
        -0.20310139656066895,
        0.20072388648986816,
        -0.6413072943687439,
        -0.6000267267227173,
        0.38856571912765503,
        0.04915722459554672,
        -0.8593881726264954,
        0.5907934308052063,
        -0.44835469126701355,
        -0.011924609541893005,
        -0.19931043684482574,
        0.4164809584617615,
        -0.3483259677886963,
        0.12447874993085861,
        -0.07140606641769409,
        0.5635203719139099,
        0.011200990527868271,
        0.468384712934494,
        0.18303193151950836,
        0.15739837288856506,
        0.2457985281944275,
        -0.0301030483096838,
        0.4243430495262146,
        0.16591116786003113,
        0.435196191072464,
        0.7098968625068665,
        0.08107594400644302,
        0.2995579242706299,
        -0.03949049860239029,
        0.3615216910839081,
        0.2519652843475342,
        0.15121617913246155,
        -0.18384867906570435,
        1.2369464635849,
        -0.8577648997306824,
        0.49790140986442566,
        -0.43138524889945984,
        0.028186142444610596,
        -0.07038255035877228,
        0.36134323477745056,
        -0.5159600973129272,
        -0.3588298559188843,
        0.23788082599639893,
        0.08029083162546158,
        0.07132337987422943,
        0.30150359869003296,
        -0.8569732308387756,
        -0.4765029847621918,
        -0.056416772305965424,
        0.4481900632381439,
        0.09318207204341888,
        0.6618348360061646,
        -0.2213161289691925,
        0.5694770812988281,
        -0.2744981646537781,
        -0.11254382878541946,
        -0.1049482449889183,
        0.32843735814094543,
        0.3290654420852661,
        0.13029225170612335,
        -0.40475744009017944,
        -0.37407755851745605,
        -0.7177885174751282,
        0.0657028928399086,
        0.05844828858971596,
        0.07516328245401382,
        -0.3732154369354248,
        -0.5669219493865967,
        0.05339222773909569,
        -0.09522664546966553,
        -0.5875412821769714,
        -0.2861788272857666,
        -0.7556629776954651,
        0.5867363810539246,
        0.6374877691268921,
        0.6103880405426025,
        0.2738463282585144,
        0.08761405199766159,
        0.24571725726127625,
        0.17327675223350525,
        -0.18081802129745483,
        -0.05913090705871582,
        0.31223157048225403,
        0.22686448693275452,
        0.6320432424545288,
        0.4459073543548584,
        0.7416785359382629,
        -0.3375433683395386,
        -0.2788277566432953,
        -0.23819386959075928,
        -0.8465348482131958,
        -0.3142606019973755,
        -0.38203075528144836,
        0.5752209424972534,
        0.21682535111904144,
        0.2188783586025238,
        -0.3018884062767029,
        0.06907662749290466,
        0.09951525181531906,
        -0.02077549882233143,
        0.03082348220050335,
        -0.901318371295929,
        -0.018564822152256966,
        1.062790870666504,
        0.13451246917247772,
        -0.3171154856681824,
        -0.5126040577888489,
        0.46894779801368713,
        -0.05017600208520889,
        0.003124487353488803,
        0.5760090351104736,
        0.1040981113910675,
        -0.07348592579364777,
        0.09219343960285187,
        0.4022718071937561,
        -0.09614065289497375,
        -0.7223321199417114,
        0.4393968880176544,
        0.30293163657188416,
        -0.05616853013634682,
        -0.11689981818199158,
        -0.8193739056587219,
        -0.0024710465222597122,
        0.4961150288581848,
        0.5614818334579468,
        -0.35712069272994995,
        -0.354383647441864,
        -0.34394338726997375,
        0.6096436977386475,
        -0.12432349473237991,
        -0.7830820679664612,
        -0.41031137108802795,
        0.007109612226486206,
        0.36382195353507996,
        -1.3351129293441772,
        0.07852650433778763,
        -0.6321345567703247,
        -0.4437074065208435,
        0.39708444476127625,
        0.3158058524131775,
        -0.2482372224330902,
        0.06438610702753067,
        -0.7802003622055054,
        0.32085874676704407,
        -0.3506844639778137,
        0.2323431372642517,
        0.36671966314315796,
        0.5439722537994385,
        -0.17653122544288635,
        0.2847639322280884,
        0.39784353971481323,
        -0.4467128813266754,
        0.4202360510826111,
        0.48711663484573364,
        0.6627194285392761,
        0.04253867268562317,
        0.32059380412101746,
        -0.19072385132312775,
        0.25679561495780945,
        -0.45788639783859253,
        -0.44268083572387695,
        0.3092798888683319,
        -0.2939729690551758,
        0.019941966980695724,
        0.09693960845470428,
        0.10088718682527542,
        -0.054890748113393784,
        0.8021012544631958,
        -0.2548932731151581,
        -0.1277954876422882,
        -0.4565361440181732,
        -0.4611416459083557,
        -0.10717349499464035,
        0.4053780436515808,
        0.029499400407075882,
        -0.11371136456727982,
        -0.7715198397636414,
        -0.21047662198543549,
        0.31649112701416016,
        0.12186411023139954,
        -0.19496069848537445,
        0.07979198545217514,
        0.3779120445251465,
        0.2044234573841095,
        0.006183626130223274,
        0.6198709607124329,
        0.6249772906303406,
        0.43762797117233276,
        0.5630747675895691,
        0.20896856486797333,
        0.1293640434741974,
        1.2036906480789185,
        0.3423002362251282,
        0.15070085227489471,
        0.13406768441200256,
        -0.4608041048049927,
        -0.007569226436316967,
        0.3814087212085724,
        0.1059853732585907,
        0.416628360748291,
        0.2156418263912201,
        0.15082775056362152,
        0.19937686622142792,
        -0.16475112736225128,
        -0.26190313696861267,
        0.19047240912914276,
        0.05088450014591217,
        0.540294885635376,
        -0.3773418068885803,
        0.4319881200790405,
        -0.4432337284088135,
        -0.5718116164207458,
        -0.44176024198532104,
        0.6544980406761169,
        -0.17896980047225952,
        -0.05760115757584572,
        -0.03874455764889717,
        -0.198412224650383,
        -0.3836665749549866,
        0.2379649132490158,
        -0.5329377055168152,
        -0.1793597787618637,
        0.37271568179130554,
        0.7071443796157837
      ]
    },
    {
      "activation": "rectified",
      "architecture": "dense",
      "bias": [
        0.010554228909313679,
        -0.02250346727669239,
        -0.019515518099069595,
        0.011826087720692158,
        0.056365594267845154,
        -0.013184556737542152,
        0.01696329563856125,
        -0.020405219867825508,
        0.033576104789972305,
        -0.03325224295258522,
        -0.013674466870725155,
        0.0011227953946217895,
        0.01483074389398098,
        -0.02055639587342739,
        0.02097799815237522,
        -0.00770878791809082,
        0.01358459796756506,
        -0.013442286290228367,
        -0.02593807689845562,
        -0.02494104951620102,
        -0.00010744424071162939,
        0.0019001804757863283,
        -0.013588991016149521,
        0.0074148704297840595,
        6.075709097785875e-05,
        -0.018351713195443153,
        -0.029248151928186417,
        -0.014710674993693829,
        0.025456370785832405,
        -0.01936165802180767,
        0.04962295666337013,
        -0.013779106549918652,
        -0.015388806350529194,
        -0.022938871756196022,
        -0.026044784113764763,
        -0.00851986650377512,
        0.0,
        0.001555554335936904,
        -0.01162734068930149,
        0.056415967643260956,
        -0.013085419312119484,
        -0.036798641085624695,
        -0.0010965028777718544,
        0.029738832265138626,
        -0.010791045613586903,
        0.01812494359910488,
        0.0033082144800573587,
        -0.02409503422677517,
        0.005543474107980728,
        0.0057665882632136345,
        -0.024756668135523796,
        0.03383379057049751,
        0.022153649479150772,
        -0.02531302720308304,
        0.011873546987771988,
        -0.00806089024990797,
        0.05035080760717392,
        0.004691339563578367,
        0.01869812235236168,
        0.022438179701566696,
        -0.0072064828127622604,
        -0.039253607392311096,
        -0.03153802827000618,
        -0.02039482444524765,
        -0.008895874954760075,
        0.0,
        -0.03956470265984535,
        0.014300989918410778,
        -0.019291680306196213,
        0.018884975463151932,
        -0.014232427813112736,
        -0.005125359632074833,
        -0.008832860738039017,
        -0.021427422761917114,
        0.0026480022352188826,
        0.012823155149817467,
        -0.007211021147668362,
        -0.00799122080206871,
        0.041667960584163666,
        -0.0171903558075428,
        0.004799822345376015,
        0.006646552588790655,
        0.0052234637551009655,
        -0.02348431944847107,
        -0.021159101277589798,
        0.013844816014170647,
        -0.015155673958361149,
        -0.03529192879796028,
        0.019118528813123703,
        0.09079288691282272,
        -0.023776525631546974,
        -0.029791761189699173,
        -0.0071702441200613976,
        0.023944197222590446,
        -0.013788405805826187,
        -0.017771756276488304,
        -0.010228022933006287,
        -0.014055142179131508,
        0.016125015914440155,
        -0.006923922803252935,
        -0.00937612447887659,
        -0.02169819362461567,
        -0.00011346539395162836,
        0.037516411393880844,
        -0.015561139211058617,
        0.006611162796616554,
        -0.004213937558233738,
        0.022943811491131783,
        -0.012197035364806652,
        0.01756231300532818,
        -0.0034722790587693453,
        0.04624874144792557,
        0.03708626329898834,
        0.00808404479175806,
        -0.000888267473783344,
        -0.015907777473330498,
        -0.036757081747055054,
        0.007514519616961479,
        -0.019269168376922607,
        0.014446436427533627,
        -0.009135150350630283,
        -0.005516872275620699,
        -0.008461319841444492,
        -0.020857833325862885,
        -0.018394887447357178,
        0.014860625378787518,
        0.009689739905297756,
        -0.019452199339866638
      ],
      "weights": [
        -0.043805044144392014,
        -0.09326291084289551,
        0.09689905494451523,
        -0.18253381550312042,
        -0.05371296405792236,
        -0.33978167176246643,
        0.03206074610352516,
        0.02203911542892456,
        0.3488863408565521,
        0.0709524005651474,
        0.12572798132896423,
        -0.12485142052173615,
        -0.08092740923166275,
        -0.06270703673362732,
        0.2163764089345932,
        0.09812898188829422,
        0.3155519962310791,
        -0.10316533595323563,
        0.06956786662340164,
        0.03928350284695625,
        -0.14889194071292877,
        -0.01980532892048359,
        0.05193537473678589,
        -0.011442800052464008,
        0.4198547303676605,
        0.3228359520435333,
        -0.0017983273137360811,
        -0.10160567611455917,
        -0.2096463292837143,
        0.27477818727493286,
        -0.2847834527492523,
        0.23548179864883423,
        -0.0009929940570145845,
        -0.2982024848461151,
        0.1376807540655136,
        -0.0428183376789093,
        0.10653914511203766,
        -0.09721670299768448,
        -0.09918530285358429,
        -0.09105377644300461,
        -0.014697825536131859,
        -0.23234130442142487,
        0.2388969510793686,
        -0.08445867896080017,
        -0.20795616507530212,
        -0.2058744728565216,
        0.024315327405929565,
        0.2692429721355438,
        0.054018810391426086,
        -0.15110507607460022,
        -0.10322202742099762,
        -0.12445113807916641,
        0.36680808663368225,
        0.10548288375139236,
        -0.05680015683174133,
        0.18657426536083221,
        0.15427564084529877,
        0.03374919295310974,
        0.17920155823230743,
        -0.006374076008796692,
        -0.1361362636089325,
        -0.1801745891571045,
        -0.2244441956281662,
        -0.23729781806468964,
        0.2336163967847824,
        -0.07697594910860062,
        0.2377447634935379,
        -0.15359461307525635,
        -0.1048283725976944,
        -0.03954455256462097,
        0.05745219439268112,
        0.13082239031791687,
        0.40954625606536865,
        0.23560301959514618,
        -0.11578744649887085,
        0.0432610847055912,
        -0.056035324931144714,
        0.1392507702112198,
        0.1487041860818863,
        0.13754411041736603,
        0.13881860673427582,
        -0.07019374519586563,
        -0.41743993759155273,
        0.07453879714012146,
        0.1772790402173996,
        -0.40894243121147156,
        0.09408459067344666,
        0.12163387984037399,
        -0.10259202122688293,
        -0.14560134708881378,
        0.033054959028959274,
        0.009389466606080532,
        0.18277719616889954,
        -0.1235990822315216,
        -0.1614452302455902,
        -0.12389738112688065,
        0.0844445675611496,
        0.13775211572647095,
        -0.1609993427991867,
        -0.12191056460142136,
        0.06530502438545227,
        0.07546137273311615,
        -0.30130958557128906,
        0.02733388915657997,
        0.005593311972916126,
        0.009156842716038227,
        0.03039569780230522,
        -0.010731509886682034,
        -0.012584388256072998,
        0.03646542504429817,
        0.05191681906580925,
        0.16492018103599548,
        -0.008288675919175148,
        -0.06150112673640251,
        -0.11865326762199402,
        -0.07696018368005753,
        -0.1523895114660263,
        -0.2712263762950897,
        0.0038024710956960917,
        0.04831013083457947,
        -0.15633343160152435,
        -0.04862610623240471,
        0.22324086725711823,
        0.05921763554215431,
        0.11092384904623032,
        0.09912068396806717,
        0.08048669248819351,
        0.17045168578624725,
        -0.001058963593095541,
        -0.025131676346063614,
        -0.018211008980870247,
        -0.0808451846241951,
        -0.3878431022167206,
        0.0001550877932459116,
        -0.0839870423078537,
        -0.20955464243888855,
        0.1739477664232254,
        0.10178951174020767,
        0.05161399394273758,
        0.28364434838294983,
        -0.1885378211736679,
        0.1169278547167778,
        -0.14343614876270294,
        -0.018467826768755913,
        0.16451096534729004,
        -0.17334449291229248,
        0.09468519687652588,
        0.13164135813713074,
        0.2554222643375397,
        0.14441224932670593,
        0.20258815586566925,
        0.14453285932540894,
        -0.0493541918694973,
        0.001915639266371727,
        -0.1115163117647171,
        -0.001733926823362708,
        -0.014570296742022038,
        0.08719434589147568,
        -0.08214034885168076,
        -0.09811592102050781,
        -0.2903476059436798,
        -0.08012564480304718,
        0.10202028602361679,
        -0.29467254877090454,
        -0.0063156685791909695,
        0.17537643015384674,
        -0.05388955771923065,
        -0.10592961311340332,
        -0.05580832436680794,
        -0.0522109791636467,
        0.05026644840836525,
        -0.023236114531755447,
        0.061114948242902756,
        -0.15578383207321167,
        0.23764324188232422,
        0.050124943256378174,
        -0.12375101447105408,
        -0.12576566636562347,
        -0.06497377902269363,
        0.08774968981742859,
        -0.026740670204162598,
        0.054385729134082794,
        -0.1607777178287506,
        -0.09934300929307938,
        0.2173515260219574,
        0.10419728606939316,
        0.01049458421766758,
        -0.047752127051353455,
        -0.003557933494448662,
        -0.015840517356991768,
        0.2949066162109375,
        0.22665712237358093,
        0.054192014038562775,
        -0.057925473898649216,
        0.055764053016901016,
        -0.03678099066019058,
        -0.01216365210711956,
        -0.2107742577791214,
        0.060840606689453125,
        -0.21755003929138184,
        -0.10532321035861969,
        -0.07296349853277206,
        0.10791156440973282,
        -0.12990176677703857,
        -0.02098391391336918,
        0.10427531599998474,
        0.16846472024917603,
        0.2739097476005554,
        -0.10300924628973007,
        -0.1033821851015091,
        0.023266853764653206,
        -0.1179535984992981,
        -0.031621117144823074,
        0.05467727780342102,
        0.07850178331136703,
        9.55606265051756e-06,
        -0.26770761609077454,
        -0.011103767901659012,
        0.04871083423495293,
        -0.09411463886499405,
        0.03790266811847687,
        0.10060787945985794,
        -0.3228296637535095,
        0.1340433955192566,
        -0.06900026649236679,
        0.007429736666381359,
        0.20558340847492218,
        -0.04157870262861252,
        0.05414006486535072,
        0.062279779464006424,
        -0.22898848354816437,
        -0.0007505577523261309,
        0.01743733324110508,
        -0.02564067579805851,
        0.1642410308122635,
        0.04189334064722061,
        0.015233094803988934,
        0.11731378734111786,
        0.03196655958890915,
        -0.30601170659065247,
        -0.26805731654167175,
        0.04878731817007065,
        -0.03421073034405708,
        0.40701499581336975,
        -0.017910391092300415,
        -0.09927704185247421,
        0.21061605215072632,
        -0.08049279451370239,
        0.006876130122691393,
        -0.380825400352478,
        -0.08446579426527023,
        -0.09995037317276001,
        0.2485974282026291,
        0.3102567195892334,
        0.016206856817007065,
        -0.06629334390163422,
        -0.051368433982133865,
        0.1362176388502121,
        0.0787564143538475,
        0.14066460728645325,
        9.101333125727251e-05,
        -0.03601104021072388,
        0.15952947735786438,
        -0.09497341513633728,
        0.2002418488264084,
        0.11426366120576859,
        0.18526533246040344,
        0.003699213033542037,
        -0.054238468408584595,
        0.07363399863243103,
        -0.20198971033096313,
        0.015802348032593727,
        -0.30539563298225403,
        -0.29239270091056824,
        -0.12995971739292145,
        0.1347316950559616,
        -0.22705650329589844,
        -0.03298123925924301,
        0.21618518233299255,
        -0.00047927541891112924,
        -0.19327646493911743,
        -0.0366765521466732,
        -0.1582329422235489,
        0.046046312898397446,
        -0.057312630116939545,
        -0.02617001347243786,
        0.064118891954422,
        -0.006806815974414349,
        0.13821472227573395,
        0.13493746519088745,
        0.05590078979730606,
        0.11464706063270569,
        -0.061842262744903564,
        -0.01814408414065838,
        -0.049187399446964264,
        0.02366681583225727,
        -0.23167888820171356,
        -0.028491273522377014,
        0.19027195870876312,
        -0.12714062631130219,
        -0.18396617472171783,
        -0.07439526915550232,
        -0.05107032135128975,
        0.13916754722595215,
        -0.08271373063325882,
        0.21600723266601562,
        -0.04597948119044304,
        0.0505768358707428,
        0.08435879647731781,
        -0.018214328214526176,
        -0.21514646708965302,
        0.02607140690088272,
        -0.014989152550697327,
        -0.09955090284347534,
        -0.1944056898355484,
        -0.20005322992801666,
        0.006902232300490141,
        -0.12328986078500748,
        0.0906626358628273,
        -0.05543317273259163,
        0.17911817133426666,
        0.1271386444568634,
        -0.06953902542591095,
        -0.006217921152710915,
        0.03735627979040146,
        0.2280096411705017,
        0.1115974709391594,
        0.1630982905626297,
        -0.23721672594547272,
        -0.18898826837539673,
        -0.13833649456501007,
        0.14742973446846008,
        -0.13621094822883606,
        -0.06472932547330856,
        0.009760628454387188,
        -0.1275934875011444,
        0.04510204493999481,
        0.12840038537979126,
        -0.1525324136018753,
        0.0917474627494812,
        -0.06208169087767601,
        -0.12336649000644684,
        -0.20416609942913055,
        -0.0576782263815403,
        0.06309925764799118,
        -0.1658152937889099,
        -0.02252395823597908,
        -0.09015893191099167,
        -0.045042701065540314,
        -0.13676771521568298,
        -0.16269904375076294,
        0.1212996393442154,
        0.02281218208372593,
        0.04834873974323273,
        0.25977498292922974,
        -0.04344787448644638,
        0.08885882794857025,
        0.07019056379795074,
        -0.08675926923751831,
        0.12016844749450684,
        0.05629001930356026,
        -0.02344021201133728,
        0.035237327218055725,
        -0.04617710039019585,
        0.1878669708967209,
        -0.05125446245074272,
        -0.1713346391916275,
        0.10877831280231476,
        0.07106373459100723,
        0.08980390429496765,
        -0.0814213752746582,
        -0.07395816594362259,
        0.06411732733249664,
        0.18415863811969757,
        -0.15725679695606232,
        -0.2140219360589981,
        -0.24072685837745667,
        0.012839086353778839,
        -0.2043081670999527,
        0.09965807944536209,
        -0.26415184140205383,
        0.056627850979566574,
        0.03270861133933067,
        0.011092202737927437,
        0.0820557102560997,
        -0.13274797797203064,
        -0.18725933134555817,
        0.0761605054140091,
        0.02755499817430973,
        0.1697341352701187,
        -0.2592179477214813,
        0.3687339425086975,
        -0.3217877149581909,
        -0.0942583903670311,
        -0.12851938605308533,
        0.16247621178627014,
        0.12460458278656006,
        -0.04155062511563301,
        -0.1489965319633484,
        -0.12399872392416,
        -0.13847951591014862,
        0.2508610785007477,
        -0.11720592528581619,
        -0.20635351538658142,
        -0.11012813448905945,
        0.026330187916755676,
        -0.2071814388036728,
        -0.1647529900074005,
        -0.14190347492694855,
        0.04442344978451729,
        -0.04400568827986717,
        -0.0414586178958416,
        0.21859748661518097,
        -0.19300273060798645,
        0.03797280788421631,
        -0.21448124945163727,
        -0.02234027348458767,
        0.07564760744571686,
        -0.08416981250047684,
        -0.11176951974630356,
        0.14226330816745758,
        -0.016473840922117233,
        0.01432806346565485,
        0.29336610436439514,
        0.037037454545497894,
        -0.054223399609327316,
        -0.08019763231277466,
        -0.16906893253326416,
        0.03138533607125282,
        0.0005837107310071588,
        -0.553619921207428,
        0.22831684350967407,
        -0.0866297110915184,
        0.036327965557575226,
        0.08003081381320953,
        -0.23722638189792633,
        -0.6094784736633301,
        -0.2653665840625763,
        -0.09491804987192154,
        -0.03648746386170387,
        -0.07312171906232834,
        -0.05779601261019707,
        -0.09695775806903839,
        0.32484135031700134,
        -0.1005341038107872,
        -0.05277024954557419,
        -0.24590814113616943,
        0.14742764830589294,
        -0.1531892865896225,
        -0.12217845022678375,
        0.09227826446294785,
        0.04149224981665611,
        0.003728878917172551,
        0.11943569034337997,
        -0.15241579711437225,
        0.2185114622116089,
        -0.3435107469558716,
        -0.23087751865386963,
        0.19649434089660645,
        -0.1107887551188469,
        -0.10954992473125458,
        0.04999098554253578,
        -0.2077864408493042,
        -0.09282936155796051,
        -0.0654652789235115,
        0.1714785099029541,
        0.09476836770772934,
        -0.06109461560845375,
        -0.2698458433151245,
        -0.37049320340156555,
        0.13098226487636566,
        0.27740058302879333,
        -0.270338237285614,
        0.021000532433390617,
        -0.09969646483659744,
        -0.045529138296842575,
        -0.4122544825077057,
        -0.009332104586064816,
        0.10202330350875854,
        0.016916388645768166,
        -0.09111778438091278,
        -0.11761227995157242,
        0.05732805281877518,
        -0.1827613264322281,
        0.14006683230400085,
        0.05430004373192787,
        0.21074582636356354,
        0.13347381353378296,
        -0.30617788434028625,
        0.07963767647743225,
        -0.15396615862846375,
        0.14862298965454102,
        -0.20761533081531525,
        -0.08204451948404312,
        -0.22396636009216309,
        0.12361305952072144,
        -0.12490992993116379,
        0.13312622904777527,
        0.05086025595664978,
        0.11020934581756592,
        -0.0010306702461093664,
        -0.0004252168582752347,
        -0.052094195038080215,
        0.10299460589885712,
        -0.25451967120170593,
        0.1655331403017044,
        -0.025619609281420708,
        -0.06971388310194016,
        -0.1612023115158081,
        -0.23435111343860626,
        -0.20438219606876373,
        -0.017727553844451904,
        0.08167716860771179,
        -0.016188932582736015,
        0.2986266016960144,
        0.07430378347635269,
        -0.18556731939315796,
        0.1501835286617279,
        -0.29290542006492615,
        0.11224022507667542,
        0.01595943234860897,
        -0.15671011805534363,
        0.02299419790506363,
        -0.1243881955742836,
        -0.10447243601083755,
        -0.06105669215321541,
        -0.24395394325256348,
        0.11474259197711945,
        0.08627428859472275,
        0.07314468920230865,
        -0.3009064793586731,
        0.009645233862102032,
        0.008075830526649952,
        -0.09029590338468552,
        -0.13135187327861786,
        -0.07461436837911606,
        0.052013371139764786,
        0.2564125061035156,
        -0.03698559105396271,
        0.04810301214456558,
        0.08749017119407654,
        0.2624078691005707,
        0.2747710645198822,
        0.22612594068050385,
        -0.13430458307266235,
        -0.07564135640859604,
        0.06387098878622055,
        -0.10264338552951813,
        -0.24637065827846527,
        0.1547745019197464,
        -0.17288075387477875,
        -0.38144955039024353,
        -0.028023896738886833,
        0.07186564058065414,
        -0.18878640234470367,
        -0.05965465307235718,
        -0.016678689047694206,
        0.05602671951055527,
        0.11441372334957123,
        0.19290095567703247,
        -0.02055315300822258,
        -0.13394096493721008,
        0.10773739218711853,
        0.20849087834358215,
        0.3373788297176361,
        -0.18730024993419647,
        -0.2642880380153656,
        0.29512566328048706,
        0.17273107171058655,
        0.051162127405405045,
        0.13443729281425476,
        0.04387101158499718,
        -0.14855685830116272,
        0.16842682659626007,
        -0.08913081139326096,
        -0.03350204974412918,
        -0.20807448029518127,
        0.039075057953596115,
        0.2743627429008484,
        0.004868541844189167,
        0.031712621450424194,
        -0.027716154232621193,
        -0.15664879977703094,
        -0.13852690160274506,
        -0.2833121418952942,
        -0.38224148750305176,
        0.21824485063552856,
        -0.37411850690841675,
        -0.22655774652957916,
        0.12034644931554794,
        -0.06507442891597748,
        0.25392070412635803,
        -0.2614990472793579,
        -0.17288272082805634,
        -0.017472438514232635,
        0.044837117195129395,
        -0.07834317535161972,
        0.15128488838672638,
        0.14705121517181396,
        -0.025053462013602257,
        -0.13968220353126526,
        -0.06997165083885193,
        0.11252694576978683,
        -0.045980311930179596,
        -0.2273033708333969,
        -0.09347052872180939,
        -0.09980287402868271,
        0.0362490750849247,
        0.19871734082698822,
        0.05034082382917404,
        -0.11749148368835449,
        -0.05057642608880997,
        0.1776813566684723,
        0.20396360754966736,
        -0.001661062939092517,
        -0.35118719935417175,
        -0.017852097749710083,
        0.23496729135513306,
        -0.3099057078361511,
        -0.03970637544989586,
        -0.04380019009113312,
        0.2115224450826645,
        -0.1625586450099945,
        0.0810379609465599,
        -0.38029536604881287,
        0.0821765810251236,
        0.016053136438131332,
        0.07318202406167984,
        0.06936062127351761,
        -0.11441829055547714,
        -0.15929150581359863,
        0.20454534888267517,
        0.2139107882976532,
        0.27384844422340393,
        -0.2722156047821045,
        -0.11280554533004761,
        -0.19078950583934784,
        0.2945493161678314,
        0.1335318684577942,
        -0.3046724796295166,
        -0.1780007928609848,
        0.16428464651107788,
        -0.09490697085857391,
        -0.051413942128419876,
        0.16900938749313354,
        0.07492227852344513,
        -0.021318713203072548,
        -0.020694371312856674,
        0.09916698932647705,
        0.15043552219867706,
        0.23907990753650665,
        -0.13455533981323242,
        -0.14248107373714447,
        -0.006726166233420372,
        -0.05718480050563812,
        -0.18471549451351166,
        -0.12150240689516068,
        -0.26005080342292786,
        0.13928812742233276,
        0.047017958015203476,
        -0.22311262786388397,
        0.06611844152212143,
        -0.09566588699817657,
        -0.29732319712638855,
        -0.12083803117275238,
        0.023795198649168015,
        -0.05465753749012947,
        0.16146911680698395,
        -0.1090916246175766,
        -0.00995173491537571,
        -0.06719844043254852,
        -0.08392126858234406,
        -0.2977430820465088,
        -0.12168119847774506,
        -0.06932041049003601,
        0.06058625504374504,
        0.26434168219566345,
        0.03554955869913101,
        -0.007337487302720547,
